import math
import numpy as np

def softmax(x):
    m = max(x)
    exps = [math.exp(i - m) for i in x]
    s = sum(exps)
    for idx, _ in enumerate(exps):
        exps[idx] /= s
    return exps
def predict_proba(input):
    if input[11] >= -1.353264:
        if input[23] >= 0.52540815:
            if input[1] >= 0.58670187:
                if input[5] >= 0.09702279:
                    if input[55] >= -1.2228844:
                        var0 = -0.13367696
                    else:
                        var0 = 0.14255057
                else:
                    if input[4] >= -0.0069374917:
                        var0 = 0.347737
                    else:
                        var0 = -0.066388085
            else:
                if input[23] >= 1.4837143:
                    if input[21] >= -0.5369334:
                        var0 = 0.90403134
                    else:
                        var0 = 0.23983581
                else:
                    if input[4] >= -0.016777122:
                        var0 = 0.48779255
                    else:
                        var0 = 0.09112931
        else:
            if input[29] >= -1.7317269:
                if input[29] >= -0.9425348:
                    if input[5] >= -0.504447:
                        var0 = -0.1544411
                    else:
                        var0 = -0.0650848
                else:
                    if input[14] >= 0.6876023:
                        var0 = 0.72110885
                    else:
                        var0 = -0.055397287
            else:
                if input[55] >= -0.24024978:
                    if input[21] >= -0.82702875:
                        var0 = 0.34255335
                    else:
                        var0 = -0.14048992
                else:
                    if input[22] >= -0.7637007:
                        var0 = 1.1176249
                    else:
                        var0 = -0.03293783
    else:
        if input[4] >= -0.5398948:
            if input[21] >= -0.013193203:
                if input[39] >= 0.16367435:
                    if input[19] >= 1.0985525:
                        var0 = 0.5040919
                    else:
                        var0 = -0.09433082
                else:
                    if input[2] >= 0.122686654:
                        var0 = 1.0637662
                    else:
                        var0 = 0.029881733
            else:
                if input[0] >= -1.0390729:
                    var0 = -0.13436888
                else:
                    var0 = 0.05574093
        else:
            if input[41] >= -0.76203156:
                if input[13] >= -1.5499444:
                    if input[43] >= 1.2500687:
                        var0 = 0.05574093
                    else:
                        var0 = -0.1545727
                else:
                    var0 = 0.42323646
            else:
                if input[19] >= 1.7138212:
                    var0 = -0.095033735
                else:
                    var0 = 0.67484826
    if input[27] >= -0.066395044:
        if input[1] >= 0.4227227:
            if input[19] >= -0.39763817:
                if input[16] >= 0.53163195:
                    if input[7] >= -0.3047628:
                        var1 = 0.101164
                    else:
                        var1 = 0.7520265
                else:
                    if input[27] >= 1.7095532:
                        var1 = 0.38997
                    else:
                        var1 = -0.09489774
            else:
                if input[13] >= -1.1660182:
                    var1 = -0.15711476
                else:
                    if input[36] >= 0.12577453:
                        var1 = 0.20857558
                    else:
                        var1 = -0.11756617
        else:
            if input[4] >= -0.21719326:
                if input[15] >= -0.13146274:
                    if input[7] >= -0.026843542:
                        var1 = 0.09016301
                    else:
                        var1 = 0.4870127
                else:
                    if input[10] >= -0.612381:
                        var1 = -0.13927884
                    else:
                        var1 = 0.36040482
            else:
                if input[25] >= -1.8156409:
                    if input[15] >= -2.5292535:
                        var1 = 0.0061959894
                    else:
                        var1 = 0.62866116
                else:
                    if input[15] >= -0.41252217:
                        var1 = 0.7110242
                    else:
                        var1 = -0.1296976
    else:
        if input[23] >= 1.1509371:
            if input[25] >= 0.466744:
                if input[7] >= -1.2164425:
                    var1 = 0.03924265
                else:
                    var1 = 0.67435277
            else:
                if input[27] >= -0.25242162:
                    if input[15] >= 0.04695221:
                        var1 = 0.52784866
                    else:
                        var1 = -0.097150154
                else:
                    if input[53] >= 1.7274411:
                        var1 = 0.18580583
                    else:
                        var1 = -0.12605356
        else:
            if input[26] >= 3.800651:
                if input[23] >= -0.5647026:
                    var1 = 0.6804157
                else:
                    var1 = -0.08285241
            else:
                if input[7] >= -1.1751109:
                    if input[25] >= -2.3043547:
                        var1 = -0.15634525
                    else:
                        var1 = 0.20671071
                else:
                    if input[16] >= -0.7249379:
                        var1 = 0.1982926
                    else:
                        var1 = -0.13173333
    if input[27] >= -0.128501:
        if input[5] >= -1.007946:
            if input[37] >= -1.6889122:
                if input[25] >= -2.036579:
                    if input[4] >= -0.014402593:
                        var2 = 0.09583064
                    else:
                        var2 = -0.06859829
                else:
                    if input[43] >= 1.1631231:
                        var2 = -0.14136998
                    else:
                        var2 = 0.41805235
            else:
                if input[14] >= -0.6672944:
                    if input[16] >= -0.030057762:
                        var2 = -0.07917003
                    else:
                        var2 = 0.40109906
                else:
                    var2 = -0.14219883
        else:
            if input[39] >= -0.0052866447:
                if input[51] >= 0.06588704:
                    if input[20] >= -0.73083854:
                        var2 = -0.1555761
                    else:
                        var2 = 0.08193663
                else:
                    if input[31] >= 0.3707614:
                        var2 = -0.0911185
                    else:
                        var2 = 0.23864536
            else:
                if input[16] >= -0.8185411:
                    if input[15] >= -0.11996187:
                        var2 = 0.430886
                    else:
                        var2 = -0.035082158
                else:
                    if input[5] >= -1.6359262:
                        var2 = -0.11054509
                    else:
                        var2 = 0.1851327
    else:
        if input[7] >= -1.172729:
            if input[25] >= -2.3133872:
                if input[7] >= -0.60607445:
                    var2 = -0.15636599
                else:
                    if input[4] >= 0.5839875:
                        var2 = 0.31319046
                    else:
                        var2 = -0.11524993
            else:
                if input[33] >= -1.0645528:
                    var2 = 0.4643275
                else:
                    var2 = -0.08795288
        else:
            if input[4] >= -0.39679205:
                if input[15] >= -0.15107527:
                    if input[22] >= 0.012625593:
                        var2 = 0.48396492
                    else:
                        var2 = 0.117083624
                else:
                    var2 = -0.1456294
            else:
                if input[41] >= -1.2027335:
                    if input[28] >= 1.4576881:
                        var2 = 0.19684958
                    else:
                        var2 = -0.14547193
                else:
                    if input[41] >= -1.3479558:
                        var2 = 0.47659212
                    else:
                        var2 = -0.106752
    if input[33] >= -0.093654424:
        if input[7] >= -0.5155215:
            if input[45] >= -1.3807794:
                if input[29] >= -1.2653816:
                    if input[31] >= 2.3519115:
                        var3 = 0.12965286
                    else:
                        var3 = -0.15447345
                else:
                    if input[23] >= 0.92029977:
                        var3 = 0.2785169
                    else:
                        var3 = -0.12106819
            else:
                if input[50] >= -0.18793051:
                    if input[23] >= 0.61517525:
                        var3 = 0.40786353
                    else:
                        var3 = 0.02775038
                else:
                    if input[6] >= -0.6573331:
                        var3 = -0.11372211
                    else:
                        var3 = 0.06636306
        else:
            if input[2] >= 0.7157377:
                if input[13] >= 0.16887653:
                    if input[16] >= -0.21357642:
                        var3 = -0.09467693
                    else:
                        var3 = 0.2641794
                else:
                    if input[51] >= -1.8479605:
                        var3 = -0.12343682
                    else:
                        var3 = 0.23422629
            else:
                if input[16] >= 0.25385508:
                    if input[44] >= -0.32597986:
                        var3 = 0.4446858
                    else:
                        var3 = 0.015612379
                else:
                    if input[18] >= 0.80003124:
                        var3 = 0.09284257
                    else:
                        var3 = -0.12412037
    else:
        if input[2] >= 0.14835273:
            if input[3] >= -1.0399913:
                if input[13] >= 0.08875512:
                    if input[7] >= -0.15305349:
                        var3 = 0.081917666
                    else:
                        var3 = 0.28311804
                else:
                    if input[27] >= 1.5309081:
                        var3 = 0.28839457
                    else:
                        var3 = -0.13339601
            else:
                if input[47] >= -2.0126677:
                    if input[43] >= 2.190277:
                        var3 = 0.1822311
                    else:
                        var3 = -0.14522272
                else:
                    var3 = 0.3271953
        else:
            if input[15] >= -3.028223:
                if input[25] >= -2.0955296:
                    if input[16] >= 0.35397923:
                        var3 = 0.09163704
                    else:
                        var3 = -0.09359098
                else:
                    if input[1] >= -0.04531464:
                        var3 = -0.044106852
                    else:
                        var3 = 0.35354358
            else:
                if input[27] >= 1.1200323:
                    if input[0] >= -0.3051928:
                        var3 = 0.43393195
                    else:
                        var3 = -0.025374617
                else:
                    if input[3] >= 0.6503651:
                        var3 = 0.20077224
                    else:
                        var3 = -0.13462156
    if input[33] >= -0.066146165:
        if input[7] >= -0.5155215:
            if input[45] >= -1.2184768:
                if input[31] >= 2.3519115:
                    var4 = 0.11210762
                else:
                    if input[43] >= 1.8083742:
                        var4 = -0.029502803
                    else:
                        var4 = -0.15258425
            else:
                if input[3] >= -0.26488844:
                    if input[18] >= -0.7811576:
                        var4 = 0.34133494
                    else:
                        var4 = -0.09391045
                else:
                    var4 = -0.12195441
        else:
            if input[4] >= -0.5426209:
                if input[13] >= 0.0916874:
                    if input[31] >= -1.1228594:
                        var4 = 0.15417331
                    else:
                        var4 = -0.15000015
                else:
                    var4 = -0.14900987
            else:
                if input[45] >= -1.6997294:
                    if input[30] >= 1.5959109:
                        var4 = 0.032873653
                    else:
                        var4 = -0.15046069
                else:
                    var4 = 0.10497119
    else:
        if input[14] >= -0.5741956:
            if input[39] >= 1.3032606:
                if input[7] >= -0.1324063:
                    if input[37] >= 0.34890372:
                        var4 = 0.10393572
                    else:
                        var4 = -0.1136134
                else:
                    if input[13] >= 0.21088487:
                        var4 = 0.17449011
                    else:
                        var4 = -0.1092361
            else:
                if input[23] >= 1.341135:
                    if input[49] >= -0.9020915:
                        var4 = 0.3033816
                    else:
                        var4 = -0.024478147
                else:
                    if input[21] >= -1.0978816:
                        var4 = 0.12154875
                    else:
                        var4 = -0.05718481
        else:
            if input[11] >= -1.0056856:
                if input[50] >= 4.3662615:
                    var4 = 0.3211377
                else:
                    if input[25] >= -1.5342106:
                        var4 = -0.12184609
                    else:
                        var4 = 0.025227264
            else:
                if input[4] >= -0.5010574:
                    if input[13] >= -0.10443203:
                        var4 = 0.36490265
                    else:
                        var4 = -0.084152505
                else:
                    if input[31] >= -0.1768238:
                        var4 = 0.08022304
                    else:
                        var4 = -0.121253185
    if input[7] >= 0.41848925:
        if input[33] >= -0.8980734:
            if input[49] >= -1.3163865:
                if input[47] >= 1.7603216:
                    if input[49] >= -0.59850305:
                        var5 = -0.101153016
                    else:
                        var5 = 0.16736126
                else:
                    var5 = -0.15158428
            else:
                if input[15] >= 0.1608824:
                    var5 = -0.111715205
                else:
                    var5 = 0.22317393
        else:
            if input[43] >= 0.70389575:
                if input[35] >= 0.6034335:
                    var5 = -0.13995521
                else:
                    var5 = 0.052399512
            else:
                if input[17] >= 0.15247847:
                    if input[21] >= 0.25553635:
                        var5 = 0.32568607
                    else:
                        var5 = 0.0060454695
                else:
                    var5 = -0.117482774
    else:
        if input[21] >= 0.41779733:
            if input[51] >= 0.07163458:
                if input[39] >= 0.11265765:
                    if input[12] >= -0.6557296:
                        var5 = -0.16038811
                    else:
                        var5 = 0.065065116
                else:
                    if input[21] >= 0.81629854:
                        var5 = -0.090038486
                    else:
                        var5 = 0.17795096
            else:
                if input[2] >= 0.07622206:
                    if input[33] >= -0.784536:
                        var5 = 0.15036532
                    else:
                        var5 = 0.31461576
                else:
                    if input[23] >= 0.94747365:
                        var5 = 0.17239642
                    else:
                        var5 = -0.11261397
        else:
            if input[16] >= -0.685925:
                if input[8] >= -0.32250172:
                    if input[43] >= -1.4751711:
                        var5 = -0.06764099
                    else:
                        var5 = 0.19171593
                else:
                    if input[54] >= -0.5642636:
                        var5 = 0.120872416
                    else:
                        var5 = -0.048315268
            else:
                if input[43] >= -2.310326:
                    if input[21] >= 0.28147352:
                        var5 = 0.018175747
                    else:
                        var5 = -0.13733704
                else:
                    if input[35] >= -0.19655406:
                        var5 = 0.32723936
                    else:
                        var5 = -0.10685272
    if input[27] >= -0.49087608:
        if input[1] >= -0.33739084:
            if input[5] >= 0.457916:
                if input[15] >= -3.7705607:
                    if input[53] >= -2.1895924:
                        var6 = -0.1483817
                    else:
                        var6 = 0.1326189
                else:
                    if input[47] >= 1.827491:
                        var6 = 0.24893212
                    else:
                        var6 = -0.096959926
            else:
                if input[6] >= -0.52817744:
                    if input[15] >= -3.0090134:
                        var6 = -0.041983813
                    else:
                        var6 = 0.22458836
                else:
                    if input[16] >= 0.5632918:
                        var6 = 0.2576191
                    else:
                        var6 = 0.042619724
        else:
            if input[16] >= -0.79003704:
                if input[17] >= -0.45595074:
                    if input[41] >= -1.6261854:
                        var6 = 0.029650684
                    else:
                        var6 = 0.2676037
                else:
                    if input[7] >= -1.5860242:
                        var6 = 0.2412487
                    else:
                        var6 = -0.059685946
            else:
                if input[43] >= -2.2949219:
                    if input[27] >= 1.1530967:
                        var6 = 0.1251798
                    else:
                        var6 = -0.1257232
                else:
                    if input[37] >= -0.90446985:
                        var6 = 0.002151602
                    else:
                        var6 = 0.31367198
    else:
        if input[7] >= -1.2130816:
            if input[25] >= -1.295763:
                var6 = -0.15208477
            else:
                if input[21] >= -0.50646687:
                    if input[55] >= -0.078382485:
                        var6 = 0.18254665
                    else:
                        var6 = 0.028373547
                else:
                    var6 = -0.12633084
        else:
            if input[31] >= -0.43951154:
                if input[2] >= 0.043689206:
                    if input[47] >= 0.05751705:
                        var6 = -0.07967675
                    else:
                        var6 = 0.33888528
                else:
                    var6 = -0.11081898
            else:
                if input[25] >= 1.3506578:
                    if input[56] >= -0.5024096:
                        var6 = 0.2624713
                    else:
                        var6 = -0.029195506
                else:
                    if input[7] >= -1.220319:
                        var6 = 0.18636703
                    else:
                        var6 = -0.15433371
    if input[27] >= -0.066395044:
        if input[1] >= 0.9562014:
            if input[15] >= -4.3247266:
                if input[5] >= -1.3434062:
                    if input[5] >= 0.09621136:
                        var7 = -0.14273377
                    else:
                        var7 = -0.06431341
                else:
                    var7 = 0.16056289
            else:
                if input[8] >= 0.1517731:
                    var7 = 0.02180096
                else:
                    var7 = 0.27393487
        else:
            if input[21] >= 0.40671402:
                if input[15] >= 0.523188:
                    if input[7] >= -0.98281044:
                        var7 = -0.15283747
                    else:
                        var7 = 0.004467883
                else:
                    if input[33] >= -0.76050264:
                        var7 = 0.07780111
                    else:
                        var7 = 0.2279285
            else:
                if input[10] >= -0.19944414:
                    if input[23] >= 0.80927604:
                        var7 = 0.03850211
                    else:
                        var7 = -0.11388121
                else:
                    if input[4] >= 0.11486149:
                        var7 = 0.16901748
                    else:
                        var7 = 0.02984917
    else:
        if input[7] >= -1.1494861:
            if input[25] >= -2.3133872:
                if input[26] >= 3.800651:
                    var7 = 0.13470985
                else:
                    if input[43] >= 1.7323972:
                        var7 = 0.070260786
                    else:
                        var7 = -0.14451689
            else:
                if input[31] >= -0.10325718:
                    var7 = 0.21410194
                else:
                    var7 = -0.024512043
        else:
            if input[4] >= -0.2584496:
                if input[2] >= 0.098989606:
                    if input[31] >= -1.4890217:
                        var7 = 0.2015454
                    else:
                        var7 = -0.07136924
                else:
                    if input[48] >= -0.70296705:
                        var7 = -0.12949802
                    else:
                        var7 = 0.046964023
            else:
                if input[26] >= -0.00015608885:
                    if input[15] >= 0.35584003:
                        var7 = -0.10474188
                    else:
                        var7 = 0.13009681
                else:
                    if input[41] >= -1.2174134:
                        var7 = -0.150482
                    else:
                        var7 = 0.03532858
    if input[33] >= -0.066146165:
        if input[7] >= -0.5155215:
            if input[29] >= -1.2653816:
                if input[14] >= -0.9640298:
                    if input[10] >= -0.99442685:
                        var8 = -0.14563107
                    else:
                        var8 = 0.03218623
                else:
                    var8 = 0.06791912
            else:
                if input[27] >= 1.0036652:
                    if input[15] >= 0.30543974:
                        var8 = 0.30913803
                    else:
                        var8 = -0.0013862418
                else:
                    var8 = -0.105995595
        else:
            if input[21] >= 0.5488399:
                if input[15] >= 0.33633667:
                    if input[15] >= 0.40972245:
                        var8 = 0.08645535
                    else:
                        var8 = -0.09988503
                else:
                    if input[31] >= -0.8371261:
                        var8 = 0.23102227
                    else:
                        var8 = -0.08833529
            else:
                if input[29] >= -0.8827041:
                    if input[16] >= 0.3371937:
                        var8 = 0.18672308
                    else:
                        var8 = -0.06953113
                else:
                    if input[47] >= -0.06582237:
                        var8 = -0.06890846
                    else:
                        var8 = 0.24210572
    else:
        if input[51] >= 0.2598346:
            if input[25] >= -1.7195892:
                if input[3] >= 1.5957549:
                    if input[41] >= -0.79253393:
                        var8 = -0.010865334
                    else:
                        var8 = 0.24132244
                else:
                    if input[18] >= -0.5134846:
                        var8 = -0.022231974
                    else:
                        var8 = -0.13089246
            else:
                if input[21] >= -0.75884163:
                    if input[33] >= -1.2369678:
                        var8 = 0.25158724
                    else:
                        var8 = -0.11863569
                else:
                    if input[49] >= -1.8224567:
                        var8 = -0.139165
                    else:
                        var8 = 0.03379274
        else:
            if input[14] >= -0.44279647:
                if input[15] >= 0.40999305:
                    if input[25] >= -1.5663972:
                        var8 = -0.043684963
                    else:
                        var8 = 0.22894993
                else:
                    if input[27] >= 0.19548286:
                        var8 = 0.17853878
                    else:
                        var8 = 0.026262887
            else:
                if input[21] >= 0.24503481:
                    if input[5] >= -0.8484787:
                        var8 = -0.0046662744
                    else:
                        var8 = 0.17020728
                else:
                    if input[42] >= 0.45036635:
                        var8 = 0.025039606
                    else:
                        var8 = -0.11840316
    if input[27] >= -0.49087608:
        if input[5] >= 0.61211324:
            if input[25] >= -1.8129468:
                if input[47] >= 1.7833986:
                    if input[1] >= 0.44512433:
                        var9 = -0.09124301
                    else:
                        var9 = 0.17037289
                else:
                    var9 = -0.1492389
            else:
                if input[14] >= -0.57135653:
                    if input[48] >= -0.47572413:
                        var9 = 0.22266163
                    else:
                        var9 = -0.05566665
                else:
                    var9 = -0.12925851
        else:
            if input[29] >= -1.1317561:
                if input[9] >= -0.8833136:
                    if input[15] >= -2.9269505:
                        var9 = -0.0334834
                    else:
                        var9 = 0.17936623
                else:
                    if input[21] >= 0.20155668:
                        var9 = 0.14684206
                    else:
                        var9 = -0.01157929
            else:
                if input[42] >= -0.85199237:
                    if input[13] >= -0.001578575:
                        var9 = 0.14529715
                    else:
                        var9 = -0.10480215
                else:
                    if input[21] >= 0.10573061:
                        var9 = -0.00047459413
                    else:
                        var9 = -0.15619232
    else:
        if input[7] >= -1.2130816:
            if input[6] >= -0.82902336:
                var9 = -0.14947575
            else:
                var9 = -0.010251081
        else:
            if input[25] >= 1.4100822:
                if input[1] >= -0.43783343:
                    var9 = 0.008475196
                else:
                    if input[12] >= -0.65302145:
                        var9 = 0.23783806
                    else:
                        var9 = 0.064335525
            else:
                if input[31] >= -0.43013096:
                    if input[2] >= 0.09356897:
                        var9 = 0.19311737
                    else:
                        var9 = -0.10720237
                else:
                    if input[16] >= -0.19420297:
                        var9 = 0.09782438
                    else:
                        var9 = -0.1457681
    if input[7] >= 0.6618525:
        var10 = -0.14639562
    else:
        if input[23] >= 1.2365716:
            if input[51] >= 0.22436279:
                if input[2] >= -0.4221804:
                    if input[8] >= -0.29978374:
                        var10 = -0.08796348
                    else:
                        var10 = 0.14805396
                else:
                    if input[3] >= 1.4663713:
                        var10 = 0.013446957
                    else:
                        var10 = -0.1420212
            else:
                if input[21] >= -1.3410076:
                    if input[14] >= 0.8364761:
                        var10 = -0.10888606
                    else:
                        var10 = 0.18039535
                else:
                    if input[50] >= 0.6323786:
                        var10 = 0.15887392
                    else:
                        var10 = -0.13568555
        else:
            if input[29] >= -1.0855392:
                if input[11] >= -1.4948884:
                    if input[18] >= 1.5216304:
                        var10 = 0.07578864
                    else:
                        var10 = -0.0535804
                else:
                    if input[4] >= -0.65657884:
                        var10 = 0.12937415
                    else:
                        var10 = -0.123746194
            else:
                if input[35] >= 0.9258397:
                    if input[11] >= -0.6921979:
                        var10 = -0.092749685
                    else:
                        var10 = 0.30669153
                else:
                    if input[3] >= -0.8174777:
                        var10 = 0.12268504
                    else:
                        var10 = -0.11763703
    if input[7] >= 0.6618525:
        var11 = -0.1453685
    else:
        if input[23] >= 1.2367861:
            if input[14] >= 0.5227692:
                if input[4] >= 0.13150036:
                    if input[17] >= 0.81710553:
                        var11 = 0.19254455
                    else:
                        var11 = -0.040886916
                else:
                    var11 = -0.14775893
            else:
                if input[16] >= 0.47998238:
                    if input[6] >= -0.14225738:
                        var11 = -0.08125707
                    else:
                        var11 = 0.24247509
                else:
                    if input[54] >= 0.31100574:
                        var11 = 0.1912359
                    else:
                        var11 = 0.04031966
        else:
            if input[41] >= -1.7834053:
                if input[4] >= -0.50103915:
                    if input[6] >= -0.5870732:
                        var11 = -0.021346392
                    else:
                        var11 = 0.07288582
                else:
                    if input[40] >= -0.33864212:
                        var11 = -0.040221278
                    else:
                        var11 = -0.141103
            else:
                if input[35] >= 0.90871716:
                    if input[28] >= -0.92412466:
                        var11 = -0.13651389
                    else:
                        var11 = 0.18565291
                else:
                    if input[17] >= 0.60525286:
                        var11 = -0.10748131
                    else:
                        var11 = 0.17927764
    if input[27] >= -0.6309162:
        if input[2] >= 0.14749968:
            if input[33] >= -0.5899496:
                if input[7] >= -0.6060619:
                    if input[41] >= -0.90865016:
                        var12 = -0.109538
                    else:
                        var12 = 0.103606515
                else:
                    if input[25] >= 0.4790345:
                        var12 = 0.11809384
                    else:
                        var12 = -0.005251333
            else:
                if input[15] >= 0.3284433:
                    if input[21] >= 0.7819227:
                        var12 = 0.14825359
                    else:
                        var12 = -0.0032835146
                else:
                    if input[13] >= 0.17211235:
                        var12 = 0.21146466
                    else:
                        var12 = 0.028862849
        else:
            if input[8] >= -0.06461414:
                if input[13] >= -2.0040123:
                    if input[24] >= 0.36713076:
                        var12 = -0.07022555
                    else:
                        var12 = -0.15799652
                else:
                    var12 = 0.14215903
            else:
                if input[21] >= -1.3903162:
                    if input[37] >= 0.384085:
                        var12 = -0.1475081
                    else:
                        var12 = 0.030457575
                else:
                    if input[18] >= 2.4404535:
                        var12 = 0.15722334
                    else:
                        var12 = -0.14782892
    else:
        if input[22] >= 1.0347345:
            if input[8] >= -0.41484094:
                if input[43] >= -2.333911:
                    var12 = -0.13381325
                else:
                    var12 = 0.08541994
            else:
                if input[16] >= -0.6908871:
                    var12 = 0.19502844
                else:
                    var12 = 0.04658378
        else:
            if input[25] >= -1.0880418:
                if input[2] >= 1.5879076:
                    var12 = 0.023911998
                else:
                    if input[43] >= 1.2186493:
                        var12 = -0.03602387
                    else:
                        var12 = -0.14919704
            else:
                if input[19] >= 1.3534253:
                    var12 = 0.1867105
                else:
                    if input[48] >= 0.8181188:
                        var12 = 0.026067363
                    else:
                        var12 = -0.112966925
    if input[19] >= -0.40039006:
        if input[23] >= 1.5848485:
            if input[56] >= -0.7345884:
                if input[51] >= 0.26125237:
                    if input[27] >= 0.37413383:
                        var13 = -0.11953736
                    else:
                        var13 = 0.153493
                else:
                    if input[8] >= 0.5551677:
                        var13 = -0.06779403
                    else:
                        var13 = 0.19383508
            else:
                if input[37] >= -1.5986233:
                    var13 = -0.13311237
                else:
                    var13 = 0.120403804
        else:
            if input[15] >= -0.17570846:
                if input[15] >= 0.29646385:
                    if input[4] >= -0.34672755:
                        var13 = 0.030333443
                    else:
                        var13 = -0.072245166
                else:
                    if input[21] >= -0.5053599:
                        var13 = 0.13898522
                    else:
                        var13 = -0.00063023757
            else:
                if input[15] >= -2.9148505:
                    if input[3] >= 1.655348:
                        var13 = 0.06908317
                    else:
                        var13 = -0.14608046
                else:
                    if input[23] >= 0.46051866:
                        var13 = 0.16401385
                    else:
                        var13 = -0.14532512
    else:
        if input[15] >= -3.0007215:
            if input[45] >= -1.0619688:
                if input[10] >= -0.843119:
                    if input[37] >= -1.6406231:
                        var13 = -0.14456972
                    else:
                        var13 = -0.031276062
                else:
                    if input[5] >= 0.6372653:
                        var13 = -0.10654542
                    else:
                        var13 = 0.10337583
            else:
                if input[31] >= 0.62803704:
                    if input[17] >= 0.27098742:
                        var13 = -0.13659193
                    else:
                        var13 = -0.00027232728
                else:
                    if input[23] >= 0.20923701:
                        var13 = 0.14935544
                    else:
                        var13 = -0.10225696
        else:
            if input[47] >= 1.1064003:
                var13 = 0.20234829
            else:
                var13 = -0.040928077
    if input[10] >= -0.19870862:
        if input[11] >= -0.81733614:
            if input[18] >= 1.5736015:
                if input[8] >= 0.62986684:
                    var14 = -0.11656751
                else:
                    if input[41] >= 0.48397553:
                        var14 = -0.072590716
                    else:
                        var14 = 0.15180728
            else:
                if input[39] >= 1.4845213:
                    if input[21] >= -0.57191557:
                        var14 = -0.09659362
                    else:
                        var14 = 0.19787751
                else:
                    if input[43] >= -1.5897393:
                        var14 = -0.13078113
                    else:
                        var14 = 0.013287452
        else:
            if input[39] >= -0.49269605:
                if input[15] >= 0.32388768:
                    if input[30] >= 1.6490017:
                        var14 = 0.032230385
                    else:
                        var14 = -0.13565722
                else:
                    if input[51] >= 0.23173124:
                        var14 = -0.1301535
                    else:
                        var14 = 0.047951657
            else:
                if input[31] >= -0.5407214:
                    if input[40] >= -0.29965216:
                        var14 = 0.1917219
                    else:
                        var14 = -0.013291953
                else:
                    if input[2] >= 1.0577434:
                        var14 = 0.027601868
                    else:
                        var14 = -0.12908554
    else:
        if input[42] >= -0.59385884:
            if input[49] >= -0.13202944:
                if input[51] >= 0.9850726:
                    if input[3] >= 1.569414:
                        var14 = 0.06253935
                    else:
                        var14 = -0.1445118
                else:
                    if input[43] >= 0.34006807:
                        var14 = 0.09247481
                    else:
                        var14 = -0.041624725
            else:
                if input[22] >= 0.27337223:
                    if input[27] >= 0.42724395:
                        var14 = 0.24650143
                    else:
                        var14 = 0.09660725
                else:
                    if input[36] >= -0.13120231:
                        var14 = -0.010446674
                    else:
                        var14 = 0.094413735
        else:
            if input[16] >= 0.44373125:
                if input[36] >= -0.31830114:
                    if input[2] >= 0.107434705:
                        var14 = 0.037608027
                    else:
                        var14 = -0.14798412
                else:
                    if input[53] >= 0.062341042:
                        var14 = -0.07403954
                    else:
                        var14 = 0.18229592
            else:
                if input[21] >= 0.0051873587:
                    if input[27] >= -0.55395955:
                        var14 = 0.08332402
                    else:
                        var14 = -0.117939636
                else:
                    if input[41] >= -1.779902:
                        var14 = -0.12345805
                    else:
                        var14 = 0.042611234
    if input[7] >= 0.21110374:
        if input[15] >= -2.9359565:
            if input[29] >= -1.6827849:
                if input[25] >= -2.209855:
                    if input[23] >= 2.0016284:
                        var15 = 0.04367807
                    else:
                        var15 = -0.14262542
                else:
                    var15 = 0.10033328
            else:
                if input[55] >= 0.46694094:
                    var15 = -0.08868262
                else:
                    if input[21] >= 0.07665099:
                        var15 = 0.19764324
                    else:
                        var15 = 0.021815142
        else:
            if input[37] >= -0.39892775:
                var15 = -0.021340864
            else:
                var15 = 0.16946478
    else:
        if input[13] >= 0.07884236:
            if input[15] >= 0.29659915:
                if input[26] >= -0.41615176:
                    if input[29] >= -0.5979364:
                        var15 = -0.036062412
                    else:
                        var15 = 0.08965831
                else:
                    if input[15] >= 0.8955773:
                        var15 = 0.13969271
                    else:
                        var15 = -0.09261894
            else:
                if input[17] >= 0.64763224:
                    if input[24] >= -0.8563129:
                        var15 = -0.09550278
                    else:
                        var15 = 0.13824981
                else:
                    if input[15] >= -0.19630474:
                        var15 = 0.13300812
                    else:
                        var15 = -0.070734285
        else:
            if input[15] >= -2.5458229:
                if input[23] >= 1.9979324:
                    var15 = 0.087962784
                else:
                    if input[29] >= -2.1806054:
                        var15 = -0.1473824
                    else:
                        var15 = 0.029784935
            else:
                if input[31] >= 0.8217314:
                    if input[43] >= 0.8550447:
                        var15 = -0.004623859
                    else:
                        var15 = 0.19106671
                else:
                    if input[51] >= -0.39205575:
                        var15 = -0.13330545
                    else:
                        var15 = 0.01964577
    if input[10] >= -0.19870862:
        if input[39] >= -0.061857466:
            if input[4] >= 0.62275213:
                if input[16] >= -0.3094887:
                    if input[13] >= -2.1538363:
                        var16 = -0.08979605
                    else:
                        var16 = 0.16892058
                else:
                    var16 = 0.2398597
            else:
                if input[19] >= 1.7865195:
                    var16 = 0.15674888
                else:
                    if input[40] >= 0.6056584:
                        var16 = -0.050643057
                    else:
                        var16 = -0.14239909
        else:
            if input[31] >= -0.015112712:
                if input[2] >= 0.28685927:
                    if input[10] >= 0.13296169:
                        var16 = 0.17715515
                    else:
                        var16 = -0.03249265
                else:
                    if input[21] >= 1.296704:
                        var16 = 0.055234488
                    else:
                        var16 = -0.15359291
            else:
                if input[2] >= 1.2343887:
                    if input[9] >= -0.63907415:
                        var16 = -0.09549915
                    else:
                        var16 = 0.11711794
                else:
                    if input[26] >= 5.065591:
                        var16 = 0.06682174
                    else:
                        var16 = -0.13108575
    else:
        if input[21] >= -1.0219911:
            if input[33] >= -0.066105604:
                if input[49] >= -0.47305387:
                    if input[23] >= 1.6535516:
                        var16 = 0.09381208
                    else:
                        var16 = -0.08664048
                else:
                    if input[55] >= 0.0059445435:
                        var16 = 0.13353398
                    else:
                        var16 = -0.02735271
            else:
                if input[22] >= -0.31889868:
                    if input[10] >= -0.54206544:
                        var16 = 0.04917625
                    else:
                        var16 = 0.14753248
                else:
                    if input[19] >= 0.016434992:
                        var16 = -0.022563282
                    else:
                        var16 = 0.07276347
        else:
            if input[16] >= 0.432024:
                if input[19] >= -0.12007527:
                    if input[21] >= -1.5227363:
                        var16 = 0.15719193
                    else:
                        var16 = -0.0910871
                else:
                    if input[42] >= -0.33574796:
                        var16 = -0.11229159
                    else:
                        var16 = -0.014507503
            else:
                if input[43] >= -0.5656899:
                    if input[2] >= 1.0454762:
                        var16 = 0.016732905
                    else:
                        var16 = -0.15692724
                else:
                    if input[15] >= 0.46315736:
                        var16 = 0.21835203
                    else:
                        var16 = -0.035085715
    if input[7] >= 0.17749023:
        if input[13] >= -0.92213786:
            if input[41] >= -1.9611175:
                if input[10] >= -0.7870821:
                    if input[4] >= 0.24169831:
                        var17 = -0.07970655
                    else:
                        var17 = -0.14410967
                else:
                    if input[18] >= -0.7394643:
                        var17 = 0.068002924
                    else:
                        var17 = -0.109613106
            else:
                var17 = 0.1328359
        else:
            if input[27] >= 1.5175703:
                var17 = 0.15509808
            else:
                if input[13] >= -2.383671:
                    var17 = -0.12342772
                else:
                    var17 = 0.09758547
    else:
        if input[13] >= 0.070243105:
            if input[15] >= 0.30823624:
                if input[4] >= 0.3688197:
                    if input[19] >= -0.06923988:
                        var17 = 0.1303903
                    else:
                        var17 = -0.0812758
                else:
                    if input[15] >= 1.0076433:
                        var17 = 0.20045143
                    else:
                        var17 = -0.03916563
            else:
                if input[51] >= 0.2556361:
                    if input[1] >= -0.5154249:
                        var17 = -0.07134494
                    else:
                        var17 = 0.11087679
                else:
                    if input[15] >= -0.10326311:
                        var17 = 0.13427685
                    else:
                        var17 = -0.021546084
        else:
            if input[27] >= 1.4472152:
                if input[13] >= -0.7799741:
                    var17 = -0.122359015
                else:
                    if input[14] >= -0.21607685:
                        var17 = -0.001365945
                    else:
                        var17 = 0.1747846
            else:
                if input[15] >= -4.3083043:
                    if input[49] >= -1.8735152:
                        var17 = -0.14874741
                    else:
                        var17 = 0.014948067
                else:
                    var17 = 0.16374551
    if input[10] >= -0.19870862:
        if input[39] >= -0.067496866:
            if input[4] >= 0.62275213:
                if input[16] >= -0.3094887:
                    if input[13] >= -1.641234:
                        var18 = -0.06624469
                    else:
                        var18 = 0.15885755
                else:
                    var18 = 0.20679417
            else:
                if input[7] >= -1.6099546:
                    if input[16] >= 0.65140295:
                        var18 = 0.044864785
                    else:
                        var18 = -0.1222132
                else:
                    var18 = 0.112311624
        else:
            if input[7] >= 0.23237406:
                var18 = -0.1363804
            else:
                if input[4] >= -0.3783841:
                    if input[21] >= 0.13371582:
                        var18 = 0.1568419
                    else:
                        var18 = -0.016264878
                else:
                    if input[15] >= 0.28261662:
                        var18 = -0.102214895
                    else:
                        var18 = 0.04822082
    else:
        if input[32] >= -0.96051383:
            if input[13] >= 0.070243105:
                if input[19] >= -0.3914243:
                    if input[12] >= 0.18969911:
                        var18 = 0.20209837
                    else:
                        var18 = 0.04770702
                else:
                    if input[1] >= 0.008110881:
                        var18 = -0.14307219
                    else:
                        var18 = 0.042845417
            else:
                if input[37] >= -0.9633435:
                    if input[35] >= 2.0339785:
                        var18 = 0.10155122
                    else:
                        var18 = -0.14827828
                else:
                    if input[15] >= -1.409129:
                        var18 = -0.08930322
                    else:
                        var18 = 0.14149866
        else:
            if input[16] >= 1.2015494:
                var18 = 0.12368059
            else:
                if input[11] >= -1.4235998:
                    if input[37] >= -1.9311687:
                        var18 = -0.14221328
                    else:
                        var18 = 0.0914342
                else:
                    if input[3] >= -0.18394607:
                        var18 = 0.13134387
                    else:
                        var18 = -0.049246795
    if input[27] >= -0.779356:
        if input[6] >= -0.53075063:
            if input[29] >= -1.3697621:
                if input[7] >= -0.4558395:
                    if input[27] >= 0.8091017:
                        var19 = -0.018681064
                    else:
                        var19 = -0.115167364
                else:
                    if input[52] >= -0.46812692:
                        var19 = 0.04212417
                    else:
                        var19 = -0.09661457
            else:
                if input[55] >= 0.73251355:
                    if input[19] >= -0.48913592:
                        var19 = -0.14339969
                    else:
                        var19 = -0.017665094
                else:
                    if input[21] >= -0.2918157:
                        var19 = 0.16149718
                    else:
                        var19 = 0.021712584
        else:
            if input[18] >= -0.17367375:
                if input[16] >= -0.4477718:
                    if input[13] >= 0.052076995:
                        var19 = 0.20326659
                    else:
                        var19 = -0.100172475
                else:
                    if input[19] >= 1.9650867:
                        var19 = -0.13118401
                    else:
                        var19 = 0.053456422
            else:
                if input[16] >= 0.44775718:
                    if input[18] >= -0.8454255:
                        var19 = 0.10715825
                    else:
                        var19 = -0.11241929
                else:
                    if input[21] >= -0.53512585:
                        var19 = 0.043536074
                    else:
                        var19 = -0.096080974
    else:
        if input[7] >= -1.6110079:
            if input[25] >= -1.6036342:
                if input[43] >= 0.99455833:
                    var19 = -0.03298406
                else:
                    if input[14] >= 1.6132069:
                        var19 = -0.035022344
                    else:
                        var19 = -0.1449321
            else:
                var19 = 0.017031495
        else:
            if input[2] >= 0.89863473:
                var19 = 0.1389456
            else:
                var19 = -0.08251093
    if input[6] >= -0.6702395:
        if input[27] >= 0.053535026:
            if input[43] >= -1.1581099:
                if input[10] >= -0.7294011:
                    if input[30] >= 0.2330473:
                        var20 = 0.018025514
                    else:
                        var20 = -0.047977667
                else:
                    if input[49] >= -0.14691776:
                        var20 = -0.08146951
                    else:
                        var20 = 0.15425353
            else:
                if input[31] >= -0.47194892:
                    if input[6] >= -0.5199337:
                        var20 = 0.17044163
                    else:
                        var20 = -0.011784762
                else:
                    if input[23] >= -0.28063554:
                        var20 = -0.10206965
                    else:
                        var20 = 0.045932684
        else:
            if input[7] >= -1.1289216:
                if input[26] >= 2.211035:
                    if input[27] >= -0.5204059:
                        var20 = 0.1358717
                    else:
                        var20 = -0.08375347
                else:
                    if input[41] >= -2.0149171:
                        var20 = -0.14589125
                    else:
                        var20 = -0.0022209608
            else:
                if input[48] >= -0.27015552:
                    if input[40] >= -0.34398454:
                        var20 = 0.11959748
                    else:
                        var20 = -0.040304024
                else:
                    if input[52] >= -0.6989387:
                        var20 = -0.14791669
                    else:
                        var20 = 0.052803073
    else:
        if input[13] >= 0.07884236:
            if input[22] >= 0.28848946:
                if input[13] >= 0.28809634:
                    var20 = -0.04135179
                else:
                    if input[51] >= -1.4100544:
                        var20 = 0.17011501
                    else:
                        var20 = 0.0041635106
            else:
                if input[4] >= -0.3402333:
                    if input[10] >= -0.72464657:
                        var20 = 0.14768527
                    else:
                        var20 = 0.029513072
                else:
                    if input[41] >= -1.6192831:
                        var20 = -0.039203852
                    else:
                        var20 = 0.13283789
        else:
            if input[27] >= 1.5764651:
                if input[13] >= -1.1638923:
                    var20 = 0.0071542347
                else:
                    var20 = 0.10243927
            else:
                var20 = -0.13851497
    if input[29] >= -0.63168406:
        if input[23] >= 0.9921645:
            if input[43] >= 0.42794275:
                if input[9] >= -0.80809915:
                    if input[15] >= -3.0202193:
                        var21 = -0.12629074
                    else:
                        var21 = 0.057190444
                else:
                    if input[20] >= -0.61756945:
                        var21 = 0.12831101
                    else:
                        var21 = -0.0048625562
            else:
                if input[14] >= 0.75703716:
                    if input[53] >= -0.66822934:
                        var21 = -0.12058479
                    else:
                        var21 = 0.07092614
                else:
                    if input[47] >= 0.7066568:
                        var21 = 0.17504176
                    else:
                        var21 = 0.06022824
        else:
            if input[7] >= -0.5310283:
                if input[23] >= 0.4984764:
                    if input[45] >= -0.83733594:
                        var21 = -0.098594
                    else:
                        var21 = 0.043348603
                else:
                    if input[17] >= -0.95548344:
                        var21 = -0.14804968
                    else:
                        var21 = -0.023926351
            else:
                if input[21] >= 0.16454047:
                    if input[19] >= 1.3874009:
                        var21 = -0.03558892
                    else:
                        var21 = 0.094499476
                else:
                    if input[45] >= -0.4008056:
                        var21 = -0.11152683
                    else:
                        var21 = 0.047819864
    else:
        if input[14] >= -0.66341555:
            if input[39] >= -0.08362308:
                if input[36] >= 0.4003541:
                    if input[31] >= 0.9361696:
                        var21 = 0.02477785
                    else:
                        var21 = -0.1122087
                else:
                    if input[48] >= -0.121797875:
                        var21 = 0.10528337
                    else:
                        var21 = 0.007674048
            else:
                if input[31] >= -1.2500072:
                    if input[17] >= 0.26285875:
                        var21 = -0.007093859
                    else:
                        var21 = 0.1750096
                else:
                    var21 = -0.097851135
        else:
            if input[37] >= 0.70793545:
                var21 = 0.104452595
            else:
                if input[47] >= -1.5693505:
                    if input[25] >= -2.055121:
                        var21 = -0.14834717
                    else:
                        var21 = -0.0067826537
                else:
                    var21 = 0.045085445
    if input[23] >= 1.7881422:
        if input[14] >= 0.46857464:
            var22 = -0.09181736
        else:
            if input[21] >= -1.9552317:
                if input[8] >= -0.44649404:
                    if input[1] >= 0.06910663:
                        var22 = -0.088458925
                    else:
                        var22 = 0.1279725
                else:
                    if input[56] >= -0.7418877:
                        var22 = 0.1997157
                    else:
                        var22 = 0.004656293
            else:
                var22 = -0.087363474
    else:
        if input[41] >= -1.6104078:
            if input[4] >= -0.46468443:
                if input[7] >= -0.02725971:
                    if input[27] >= 0.99693847:
                        var22 = 0.020723656
                    else:
                        var22 = -0.11409391
                else:
                    if input[15] >= -0.11774632:
                        var22 = 0.032919545
                    else:
                        var22 = -0.1039921
            else:
                if input[27] >= 1.4456205:
                    if input[48] >= -0.74298835:
                        var22 = 0.12221845
                    else:
                        var22 = -0.10895616
                else:
                    if input[47] >= -2.4778476:
                        var22 = -0.0966819
                    else:
                        var22 = 0.13592403
        else:
            if input[33] >= -1.0335817:
                if input[21] >= -1.3187443:
                    if input[46] >= 0.57601416:
                        var22 = -0.011493832
                    else:
                        var22 = 0.16532034
                else:
                    var22 = -0.08462863
            else:
                if input[21] >= 0.8154014:
                    if input[5] >= -0.607939:
                        var22 = 0.02141642
                    else:
                        var22 = 0.115312174
                else:
                    if input[25] >= -2.01695:
                        var22 = -0.13803437
                    else:
                        var22 = -0.00084453577
    if input[25] >= -1.537178:
        if input[23] >= 1.5031896:
            if input[5] >= 0.03549898:
                if input[2] >= -0.43144017:
                    if input[32] >= 0.040794622:
                        var23 = -0.058580693
                    else:
                        var23 = 0.07870519
                else:
                    var23 = -0.11552575
            else:
                if input[22] >= -0.8547794:
                    if input[20] >= 0.61298347:
                        var23 = -0.047057934
                    else:
                        var23 = 0.141757
                else:
                    if input[34] >= -0.6420876:
                        var23 = -0.09267858
                    else:
                        var23 = 0.019049529
        else:
            if input[27] >= 0.3387095:
                if input[25] >= 0.47261596:
                    if input[33] >= -0.15736976:
                        var23 = -0.012824065
                    else:
                        var23 = 0.13900326
                else:
                    if input[3] >= 1.3840065:
                        var23 = 0.09050149
                    else:
                        var23 = -0.034205325
            else:
                if input[7] >= -0.43716925:
                    if input[21] >= -1.0196879:
                        var23 = -0.14346609
                    else:
                        var23 = -0.03848703
                else:
                    if input[33] >= -1.1417863:
                        var23 = -0.06278395
                    else:
                        var23 = 0.07059369
    else:
        if input[33] >= -1.017659:
            if input[13] >= 0.02145901:
                if input[17] >= 0.7202781:
                    if input[48] >= -0.437668:
                        var23 = 0.039713148
                    else:
                        var23 = -0.11689906
                else:
                    if input[28] >= -1.034492:
                        var23 = 0.17352271
                    else:
                        var23 = -0.07226096
            else:
                var23 = -0.11655498
        else:
            if input[35] >= 0.82713985:
                var23 = -0.13911086
            else:
                if input[55] >= -0.28259712:
                    if input[5] >= 0.23603046:
                        var23 = -0.060307052
                    else:
                        var23 = 0.12490995
                else:
                    if input[29] >= -1.7370439:
                        var23 = -0.12561332
                    else:
                        var23 = 0.035572544
    if input[19] >= -0.4005037:
        if input[31] >= 1.4764566:
            if input[25] >= -0.18880062:
                var24 = -0.095511064
            else:
                if input[21] >= -1.0872934:
                    if input[47] >= 1.1693869:
                        var24 = 0.019605184
                    else:
                        var24 = 0.21950558
                else:
                    var24 = -0.08363402
        else:
            if input[51] >= 0.28452396:
                if input[56] >= -0.104570396:
                    if input[12] >= -0.28957522:
                        var24 = 0.095151074
                    else:
                        var24 = -0.04688643
                else:
                    if input[20] >= -0.71501267:
                        var24 = -0.118824065
                    else:
                        var24 = -0.0034915337
            else:
                if input[20] >= -0.5100565:
                    if input[2] >= 0.1470163:
                        var24 = 0.021106232
                    else:
                        var24 = -0.06267196
                else:
                    if input[4] >= -0.5872292:
                        var24 = 0.09231196
                    else:
                        var24 = -0.054382335
    else:
        if input[1] >= 0.12478544:
            if input[15] >= -2.6122463:
                var24 = -0.14043854
            else:
                var24 = 0.007864268
        else:
            if input[23] >= 0.22166328:
                if input[20] >= -0.018040463:
                    if input[29] >= -1.507025:
                        var24 = -0.10834954
                    else:
                        var24 = 0.0058083376
                else:
                    if input[21] >= -0.60708517:
                        var24 = 0.13152969
                    else:
                        var24 = -0.03182125
            else:
                var24 = -0.1304371
    if input[33] >= -0.093654424:
        if input[5] >= -1.6198509:
            if input[41] >= 0.1243485:
                if input[17] >= -0.54262155:
                    if input[37] >= -0.35434973:
                        var25 = -0.14652623
                    else:
                        var25 = -0.013831366
                else:
                    if input[49] >= -0.30104372:
                        var25 = -0.10782721
                    else:
                        var25 = 0.07377209
            else:
                if input[18] >= 0.12834978:
                    if input[40] >= -0.16021532:
                        var25 = -0.024535777
                    else:
                        var25 = 0.14334473
                else:
                    if input[44] >= -0.0020181518:
                        var25 = 0.0022492956
                    else:
                        var25 = -0.12738729
        else:
            if input[15] >= 0.32271492:
                if input[14] >= -0.28113806:
                    var25 = 0.094252944
                else:
                    if input[27] >= 0.38037264:
                        var25 = -0.0012705195
                    else:
                        var25 = -0.16001335
            else:
                if input[22] >= 0.6602898:
                    var25 = 0.007291583
                else:
                    var25 = 0.1555683
    else:
        if input[21] >= -0.52993536:
            if input[10] >= -0.58926094:
                if input[39] >= -0.06737232:
                    if input[27] >= 0.2457862:
                        var25 = -0.0038776777
                    else:
                        var25 = -0.13251784
                else:
                    if input[27] >= -0.5299301:
                        var25 = 0.10096179
                    else:
                        var25 = -0.088518016
            else:
                if input[18] >= -0.72232926:
                    if input[15] >= -0.08664148:
                        var25 = 0.14106786
                    else:
                        var25 = -0.0057442305
                else:
                    if input[15] >= 0.1262986:
                        var25 = -0.08305494
                    else:
                        var25 = 0.07887742
        else:
            if input[33] >= -0.8015559:
                if input[29] >= -1.0420457:
                    if input[1] >= 0.19558981:
                        var25 = 0.053729575
                    else:
                        var25 = -0.09503397
                else:
                    if input[19] >= -0.3642552:
                        var25 = 0.12706794
                    else:
                        var25 = -0.061869174
            else:
                if input[27] >= 1.2656024:
                    if input[45] >= -0.67018944:
                        var25 = -0.10029341
                    else:
                        var25 = 0.098210774
                else:
                    if input[18] >= -0.03337635:
                        var25 = -0.014587729
                    else:
                        var25 = -0.11802128
    if input[25] >= -1.537178:
        if input[17] >= -0.50493824:
            if input[31] >= 0.63523877:
                if input[25] >= -0.6566428:
                    if input[28] >= 0.3208387:
                        var26 = -0.05915986
                    else:
                        var26 = 0.06456497
                else:
                    if input[3] >= 1.4128015:
                        var26 = 0.09822573
                    else:
                        var26 = -0.07907376
            else:
                if input[45] >= -0.4712935:
                    if input[18] >= 2.477165:
                        var26 = 0.060491152
                    else:
                        var26 = -0.11641397
                else:
                    if input[9] >= -0.28627825:
                        var26 = -0.0986569
                    else:
                        var26 = 0.046248585
        else:
            if input[39] >= -0.086458474:
                if input[15] >= 0.32095587:
                    if input[25] >= -0.4362439:
                        var26 = -0.12810114
                    else:
                        var26 = 0.029623983
                else:
                    if input[36] >= 1.0822985:
                        var26 = -0.11258399
                    else:
                        var26 = 0.07857365
            else:
                if input[31] >= -1.2655089:
                    if input[36] >= 2.0917962:
                        var26 = -0.060206115
                    else:
                        var26 = 0.08737743
                else:
                    if input[41] >= 0.41545963:
                        var26 = -0.017544929
                    else:
                        var26 = -0.12676495
    else:
        if input[3] >= 0.13938934:
            if input[3] >= 1.6862836:
                var26 = 0.08288081
            else:
                if input[17] >= 0.5054221:
                    var26 = -0.14315355
                else:
                    var26 = -0.0007132534
        else:
            if input[35] >= 1.3606038:
                var26 = -0.11322633
            else:
                if input[13] >= 0.058495656:
                    if input[3] >= -0.72773683:
                        var26 = 0.15808354
                    else:
                        var26 = -0.03931675
                else:
                    var26 = -0.08586034
    if input[15] >= 0.29853868:
        if input[26] >= -0.49511135:
            if input[28] >= 0.22376466:
                if input[43] >= -0.99600685:
                    if input[39] >= -0.124440975:
                        var27 = -0.118347004
                    else:
                        var27 = -0.01973323
                else:
                    if input[19] >= 1.6807477:
                        var27 = -0.049760733
                    else:
                        var27 = 0.104151435
            else:
                if input[8] >= 0.052638687:
                    if input[32] >= 1.0285361:
                        var27 = 0.08615105
                    else:
                        var27 = -0.09349555
                else:
                    if input[1] >= -0.66697294:
                        var27 = 0.081747115
                    else:
                        var27 = -0.022849247
        else:
            if input[1] >= 0.88963985:
                if input[35] >= 1.1983624:
                    if input[49] >= -0.7420277:
                        var27 = 0.012688811
                    else:
                        var27 = 0.24687813
                else:
                    var27 = -0.10863725
            else:
                if input[47] >= -0.9242933:
                    if input[16] >= 0.5826796:
                        var27 = -0.0041757505
                    else:
                        var27 = -0.13736464
                else:
                    if input[12] >= -0.6295797:
                        var27 = -0.075053684
                    else:
                        var27 = 0.08762925
    else:
        if input[15] >= 0.0049351295:
            if input[3] >= -0.25129777:
                if input[7] >= -0.15618789:
                    if input[8] >= -0.74097073:
                        var27 = -0.09575175
                    else:
                        var27 = 0.044538643
                else:
                    if input[40] >= -0.46313575:
                        var27 = 0.082845084
                    else:
                        var27 = -0.04853819
            else:
                if input[8] >= 0.49516857:
                    if input[39] >= 0.21784623:
                        var27 = -0.12823041
                    else:
                        var27 = 0.05634767
                else:
                    if input[21] >= -0.94733036:
                        var27 = 0.16633742
                    else:
                        var27 = -0.060469132
        else:
            if input[15] >= -3.0151844:
                if input[49] >= -1.289989:
                    if input[23] >= 1.9971362:
                        var27 = 0.12366836
                    else:
                        var27 = -0.11821862
                else:
                    if input[33] >= -1.1783321:
                        var27 = 0.12018399
                    else:
                        var27 = -0.091667615
            else:
                if input[23] >= 0.80714095:
                    if input[13] >= -0.97608465:
                        var27 = 0.0020358532
                    else:
                        var27 = 0.14980981
                else:
                    if input[37] >= -1.5243366:
                        var27 = -0.0957447
                    else:
                        var27 = 0.08487536
    if input[54] >= -0.5678194:
        if input[51] >= 0.14073235:
            if input[25] >= -1.6015413:
                if input[43] >= 0.6780229:
                    if input[25] >= -0.5622941:
                        var28 = 0.07902984
                    else:
                        var28 = -0.06542456
                else:
                    if input[27] >= 1.3270526:
                        var28 = 0.026865898
                    else:
                        var28 = -0.07696582
            else:
                if input[35] >= 0.8303124:
                    if input[2] >= -0.085242815:
                        var28 = -0.1275336
                    else:
                        var28 = 0.034136713
                else:
                    if input[3] >= 0.05590283:
                        var28 = -0.063328445
                    else:
                        var28 = 0.13612469
        else:
            if input[29] >= 0.06990326:
                if input[39] >= 0.18335006:
                    if input[53] >= -0.46364823:
                        var28 = -0.15585552
                    else:
                        var28 = -0.017875848
                else:
                    if input[35] >= -0.19811517:
                        var28 = 0.09204885
                    else:
                        var28 = -0.045202665
            else:
                if input[27] >= -0.06824954:
                    if input[56] >= -0.44319916:
                        var28 = 0.04975736
                    else:
                        var28 = 0.13656047
                else:
                    if input[18] >= 0.53708124:
                        var28 = 0.03906768
                    else:
                        var28 = -0.096268356
    else:
        if input[0] >= -1.1323348:
            if input[41] >= -1.4680383:
                if input[2] >= 1.3064988:
                    if input[16] >= -0.5931747:
                        var28 = -0.0768991
                    else:
                        var28 = 0.1135347
                else:
                    if input[1] >= -0.296641:
                        var28 = -0.11539984
                    else:
                        var28 = -0.040590018
            else:
                if input[41] >= -1.5049415:
                    var28 = 0.16836779
                else:
                    if input[15] >= 0.453131:
                        var28 = 0.080860764
                    else:
                        var28 = -0.07760346
        else:
            if input[29] >= -0.89066947:
                if input[41] >= -0.08521612:
                    if input[35] >= -0.76155585:
                        var28 = 0.10673472
                    else:
                        var28 = -0.08779122
                else:
                    var28 = -0.13166066
            else:
                if input[4] >= -0.44658548:
                    var28 = 0.22404066
                else:
                    var28 = 0.056890078
    if input[51] >= 1.1301162:
        if input[31] >= 0.87577677:
            if input[47] >= 1.9262131:
                var29 = -0.0070053684
            else:
                var29 = -0.14551036
        else:
            if input[31] >= 0.8151622:
                if input[41] >= -0.031830434:
                    var29 = 0.14745326
                else:
                    var29 = 0.034743354
            else:
                if input[41] >= -1.6935613:
                    if input[48] >= 2.339604:
                        var29 = 0.06433642
                    else:
                        var29 = -0.124018505
                else:
                    var29 = 0.094242804
    else:
        if input[20] >= -0.71504474:
            if input[53] >= 0.4936489:
                if input[24] >= 0.20841116:
                    if input[29] >= 0.1388467:
                        var29 = 0.01161163
                    else:
                        var29 = 0.16973178
                else:
                    if input[41] >= -0.9925793:
                        var29 = -0.07694743
                    else:
                        var29 = 0.12600897
            else:
                if input[25] >= 0.36050427:
                    if input[29] >= 0.2959624:
                        var29 = -0.047384545
                    else:
                        var29 = 0.08439822
                else:
                    if input[25] >= -1.2538888:
                        var29 = -0.056395017
                    else:
                        var29 = 0.025082365
        else:
            if input[54] >= -0.6747978:
                if input[22] >= -1.0071831:
                    if input[53] >= 0.4118492:
                        var29 = -0.00653466
                    else:
                        var29 = 0.09978379
                else:
                    var29 = -0.09633505
            else:
                if input[41] >= -1.463772:
                    if input[51] >= -1.4483451:
                        var29 = -0.09877801
                    else:
                        var29 = 0.07097668
                else:
                    if input[3] >= 0.9293951:
                        var29 = 0.14144251
                    else:
                        var29 = 0.020258997
    var30 = var0 + var1 + var2 + var3 + var4 + var5 + var6 + var7 + var8 + var9 + var10 + var11 + var12 + var13 + var14 + var15 + var16 + var17 + var18 + var19 + var20 + var21 + var22 + var23 + var24 + var25 + var26 + var27 + var28 + var29
    if input[33] >= -0.11862717:
        if input[11] >= -1.661698:
            if input[41] >= -0.31507108:
                if input[4] >= 0.6294123:
                    if input[7] >= -0.4261624:
                        var31 = -0.11577642
                    else:
                        var31 = 0.13752855
                else:
                    if input[16] >= -0.62956417:
                        var31 = -0.13039449
                    else:
                        var31 = -0.03751626
            else:
                if input[12] >= -0.4412154:
                    if input[37] >= -0.8950159:
                        var31 = 0.10364995
                    else:
                        var31 = -0.090619355
                else:
                    if input[22] >= 0.35083443:
                        var31 = 0.044642497
                    else:
                        var31 = -0.08943061
        else:
            if input[2] >= 0.78624725:
                if input[19] >= 1.1371341:
                    var31 = 0.12174074
                else:
                    var31 = 0.02363923
            else:
                var31 = -0.029822309
    else:
        if input[25] >= 0.500926:
            if input[21] >= -0.36372656:
                if input[27] >= -0.6813797:
                    if input[40] >= -0.4883353:
                        var31 = 0.13970526
                    else:
                        var31 = 0.018350335
                else:
                    var31 = -0.0791417
            else:
                if input[37] >= -0.4339702:
                    if input[35] >= 0.4086253:
                        var31 = 0.086105704
                    else:
                        var31 = -0.024789525
                else:
                    var31 = -0.11237475
        else:
            if input[28] >= 0.34913564:
                if input[39] >= -0.042707007:
                    if input[4] >= 0.17754735:
                        var31 = -0.018987816
                    else:
                        var31 = -0.1391093
                else:
                    if input[33] >= -0.6431447:
                        var31 = -0.08069911
                    else:
                        var31 = 0.044159133
            else:
                if input[26] >= -0.09820795:
                    if input[56] >= -0.61656415:
                        var31 = 0.07825532
                    else:
                        var31 = -0.07659371
                else:
                    if input[8] >= -0.19679514:
                        var31 = -0.11148057
                    else:
                        var31 = 0.0065045725
    if input[15] >= 0.3186555:
        if input[29] >= -1.3063459:
            if input[25] >= -1.2945772:
                if input[20] >= -0.79910517:
                    if input[18] >= -0.20728186:
                        var32 = -0.036082804
                    else:
                        var32 = -0.0995274
                else:
                    if input[28] >= -0.7043961:
                        var32 = 0.10684483
                    else:
                        var32 = -0.09280569
            else:
                if input[18] >= -0.44298542:
                    if input[7] >= 0.008341187:
                        var32 = -0.087865934
                    else:
                        var32 = 0.1606725
                else:
                    if input[2] >= -1.3400772:
                        var32 = -0.12952276
                    else:
                        var32 = 0.06659909
        else:
            if input[11] >= 0.7283962:
                if input[42] >= -0.08294583:
                    var32 = -0.012454458
                else:
                    var32 = -0.09750228
            else:
                if input[40] >= 0.5494613:
                    if input[54] >= 0.68922526:
                        var32 = 0.06430963
                    else:
                        var32 = -0.07415704
                else:
                    if input[42] >= -0.74489033:
                        var32 = 0.11049048
                    else:
                        var32 = -0.052825633
    else:
        if input[15] >= -0.101872526:
            if input[8] >= 0.57656586:
                if input[25] >= 0.6027161:
                    if input[35] >= 0.52486724:
                        var32 = -0.08811055
                    else:
                        var32 = 0.1077992
                else:
                    if input[40] >= 1.104756:
                        var32 = 0.057334583
                    else:
                        var32 = -0.14751515
            else:
                if input[56] >= -0.6098668:
                    if input[9] >= -0.020247:
                        var32 = 0.0002603961
                    else:
                        var32 = 0.10346811
                else:
                    if input[7] >= -1.6039635:
                        var32 = -0.06938181
                    else:
                        var32 = 0.086627856
        else:
            if input[27] >= 1.1524097:
                if input[15] >= -0.6270734:
                    if input[42] >= -0.6703521:
                        var32 = -0.11355087
                    else:
                        var32 = 0.00012420984
                else:
                    if input[45] >= -0.67357266:
                        var32 = -0.012362097
                    else:
                        var32 = 0.12873125
            else:
                if input[41] >= -1.8734324:
                    if input[16] >= 1.427875:
                        var32 = 0.02875044
                    else:
                        var32 = -0.13755281
                else:
                    if input[15] >= -0.26636538:
                        var32 = 0.1019751
                    else:
                        var32 = -0.011632983
    if input[31] >= -1.0380874:
        if input[21] >= -1.1517277:
            if input[6] >= -0.65991294:
                if input[29] >= 0.29594415:
                    if input[35] >= 1.2207735:
                        var33 = 0.10571191
                    else:
                        var33 = -0.07242467
                else:
                    if input[21] >= 0.47576636:
                        var33 = 0.07097412
                    else:
                        var33 = -0.0028034854
            else:
                if input[51] >= 0.2959244:
                    if input[15] >= 0.39145494:
                        var33 = 0.07516334
                    else:
                        var33 = -0.04683395
                else:
                    if input[15] >= 0.4377326:
                        var33 = -0.042906974
                    else:
                        var33 = 0.095359445
        else:
            if input[16] >= 0.5309626:
                if input[20] >= -0.20246074:
                    var33 = -0.07686743
                else:
                    if input[51] >= 0.594067:
                        var33 = -0.03437906
                    else:
                        var33 = 0.10800934
            else:
                if input[43] >= -0.56908375:
                    if input[21] >= -2.0578723:
                        var33 = -0.14374742
                    else:
                        var33 = -0.03839097
                else:
                    if input[18] >= -0.3241797:
                        var33 = 0.08626614
                    else:
                        var33 = -0.08417403
    else:
        if input[43] >= 0.38051283:
            var33 = 0.04776042
        else:
            if input[35] >= -0.15810868:
                var33 = -0.030844357
            else:
                var33 = -0.12855846
    if input[5] >= 0.6104169:
        if input[25] >= -1.8129468:
            if input[14] >= 1.4044237:
                var34 = -0.019855289
            else:
                var34 = -0.13196768
        else:
            if input[15] >= 0.24138708:
                var34 = -0.070507556
            else:
                var34 = 0.0668856
    else:
        if input[31] >= 1.4764566:
            if input[21] >= -0.7734207:
                if input[16] >= -0.4909697:
                    if input[29] >= -1.1723067:
                        var34 = 0.16496184
                    else:
                        var34 = -0.020863878
                else:
                    var34 = -0.043057244
            else:
                if input[29] >= -1.1484706:
                    var34 = -0.09223338
                else:
                    var34 = 0.040281538
        else:
            if input[25] >= -1.313141:
                if input[4] >= -0.24335328:
                    if input[23] >= 1.2479033:
                        var34 = 0.09513283
                    else:
                        var34 = 0.0029477752
                else:
                    if input[40] >= -0.29233882:
                        var34 = -0.011563137
                    else:
                        var34 = -0.09229085
            else:
                if input[17] >= 0.59948516:
                    if input[3] >= 1.7105181:
                        var34 = 0.08052342
                    else:
                        var34 = -0.10937049
                else:
                    if input[33] >= -1.0087748:
                        var34 = 0.12243827
                    else:
                        var34 = -0.020156266
    if input[23] >= 1.5031896:
        if input[17] >= 0.91162145:
            var35 = -0.09429739
        else:
            if input[13] >= 0.23651369:
                if input[37] >= 0.09664426:
                    var35 = 0.053884134
                else:
                    var35 = -0.09102977
            else:
                if input[21] >= -1.481205:
                    if input[19] >= -0.40035367:
                        var35 = 0.11440397
                    else:
                        var35 = 0.00072213827
                else:
                    var35 = -0.036743972
    else:
        if input[0] >= 0.9635523:
            if input[13] >= 0.1736873:
                if input[27] >= 0.42837498:
                    if input[1] >= 0.3237329:
                        var35 = -0.024299607
                    else:
                        var35 = 0.12265398
                else:
                    if input[53] >= 0.32698512:
                        var35 = 0.08598194
                    else:
                        var35 = -0.05373252
            else:
                if input[12] >= -0.49347144:
                    var35 = -0.09704866
                else:
                    var35 = 0.004585628
        else:
            if input[29] >= -0.8532251:
                if input[15] >= 0.872475:
                    if input[15] >= 1.0634589:
                        var35 = -0.10022956
                    else:
                        var35 = 0.15517665
                else:
                    if input[15] >= 0.30147052:
                        var35 = -0.07504798
                    else:
                        var35 = 0.0026072783
            else:
                if input[12] >= -0.41184685:
                    if input[37] >= 0.52246433:
                        var35 = 0.17006402
                    else:
                        var35 = -0.04192212
                else:
                    if input[18] >= -0.3333264:
                        var35 = 0.12985839
                    else:
                        var35 = -0.005053291
    if input[6] >= -0.53075063:
        if input[12] >= -0.24996352:
            if input[7] >= -0.15051834:
                if input[23] >= 0.6774594:
                    if input[25] >= -1.2528713:
                        var36 = -0.031888735
                    else:
                        var36 = 0.11684938
                else:
                    if input[1] >= -0.5594348:
                        var36 = -0.13279577
                    else:
                        var36 = 0.03510293
            else:
                if input[0] >= -0.14299811:
                    if input[28] >= -0.5691197:
                        var36 = 0.12789162
                    else:
                        var36 = -0.06709936
                else:
                    if input[27] >= 0.32886165:
                        var36 = 0.044641767
                    else:
                        var36 = -0.0736213
        else:
            if input[29] >= -1.5926772:
                if input[51] >= 0.26984957:
                    if input[46] >= 1.8553602:
                        var36 = 0.07009806
                    else:
                        var36 = -0.12792726
                else:
                    if input[39] >= 1.5419841:
                        var36 = 0.15563515
                    else:
                        var36 = -0.043054473
            else:
                if input[26] >= -0.49122915:
                    if input[7] >= -0.20652094:
                        var36 = 0.13755783
                    else:
                        var36 = -0.00013314428
                else:
                    var36 = -0.06792499
    else:
        if input[22] >= -0.14122781:
            if input[55] >= -1.2088962:
                if input[0] >= -1.7535429:
                    if input[15] >= -0.18678668:
                        var36 = 0.10309509
                    else:
                        var36 = -0.042322036
                else:
                    var36 = -0.095319614
            else:
                if input[51] >= -1.2745059:
                    var36 = -0.112705044
                else:
                    var36 = 0.06656094
        else:
            if input[16] >= 0.36227107:
                if input[51] >= 0.9869109:
                    if input[24] >= -0.6664617:
                        var36 = -0.1060035
                    else:
                        var36 = 0.062900096
                else:
                    if input[28] >= 0.18308973:
                        var36 = -0.040443007
                    else:
                        var36 = 0.1082924
            else:
                if input[21] >= -0.516652:
                    if input[15] >= 0.29181805:
                        var36 = -0.038797136
                    else:
                        var36 = 0.088857174
                else:
                    if input[29] >= -1.8551959:
                        var36 = -0.10345797
                    else:
                        var36 = 0.08577142
    if input[29] >= -0.63168406:
        if input[7] >= -0.33853623:
            if input[24] >= -0.5854017:
                if input[39] >= 1.1831856:
                    if input[7] >= -0.23295331:
                        var37 = -0.06587667
                    else:
                        var37 = 0.106177166
                else:
                    if input[8] >= -0.7063482:
                        var37 = -0.1377187
                    else:
                        var37 = -0.0025398415
            else:
                if input[45] >= -0.77010125:
                    if input[40] >= 0.15468886:
                        var37 = 0.049815323
                    else:
                        var37 = -0.123975046
                else:
                    if input[17] >= 0.7218886:
                        var37 = -0.032581225
                    else:
                        var37 = 0.12883884
        else:
            if input[35] >= -0.6493001:
                if input[3] >= -0.9155432:
                    if input[13] >= 0.22465286:
                        var37 = 0.05220405
                    else:
                        var37 = -0.028971424
                else:
                    if input[23] >= 0.009306363:
                        var37 = 0.015867678
                    else:
                        var37 = 0.16361508
            else:
                if input[2] >= 0.8070047:
                    if input[51] >= -1.0117171:
                        var37 = -0.04731408
                    else:
                        var37 = 0.09377138
                else:
                    if input[48] >= 0.98905015:
                        var37 = 0.01811929
                    else:
                        var37 = -0.14070673
    else:
        if input[16] >= 0.65188664:
            if input[5] >= 0.4405989:
                if input[26] >= 0.30277395:
                    var37 = 0.00009331672
                else:
                    var37 = -0.09292049
            else:
                if input[54] >= -0.7628913:
                    if input[51] >= 1.068046:
                        var37 = -0.01589353
                    else:
                        var37 = 0.119507946
                else:
                    var37 = -0.059845228
        else:
            if input[53] >= 0.5870731:
                if input[52] >= -0.054287665:
                    if input[35] >= 0.14674449:
                        var37 = -0.0818832
                    else:
                        var37 = 0.057588022
                else:
                    if input[23] >= 1.0298522:
                        var37 = 0.006256046
                    else:
                        var37 = 0.18997137
            else:
                if input[47] >= -1.2599907:
                    if input[25] >= -1.719598:
                        var37 = -0.048142776
                    else:
                        var37 = 0.055151455
                else:
                    if input[23] >= 0.23847798:
                        var37 = -0.01743624
                    else:
                        var37 = 0.13722523
    if input[10] >= -0.5914579:
        if input[39] >= -0.067496866:
            if input[3] >= -0.069373816:
                if input[25] >= -0.8422153:
                    if input[4] >= 0.3836259:
                        var38 = 0.06580169
                    else:
                        var38 = -0.015348377
                else:
                    if input[6] >= -0.53100336:
                        var38 = -0.11249775
                    else:
                        var38 = 0.01471086
            else:
                if input[25] >= -1.4278648:
                    if input[21] >= 0.58834326:
                        var38 = -0.0074852197
                    else:
                        var38 = -0.13655406
                else:
                    if input[48] >= -0.415304:
                        var38 = 0.09293243
                    else:
                        var38 = -0.09286717
        else:
            if input[40] >= -0.26851225:
                if input[5] >= -0.7911259:
                    if input[33] >= -0.61935806:
                        var38 = -0.10111089
                    else:
                        var38 = 0.047653716
                else:
                    if input[2] >= -0.2910601:
                        var38 = 0.10541636
                    else:
                        var38 = -0.09938201
            else:
                if input[6] >= -0.66174865:
                    if input[21] >= 0.644191:
                        var38 = 0.0062301327
                    else:
                        var38 = -0.12459947
                else:
                    if input[42] >= -0.7454591:
                        var38 = 0.096928775
                    else:
                        var38 = -0.010717905
    else:
        if input[21] >= -1.0899161:
            if input[43] >= 0.34006807:
                if input[39] >= 1.0501598:
                    if input[13] >= 0.23307744:
